digraph Tree {
node [shape=box] ;
0 [label="X[9] <= 0.5\ngini = 0.473\nsamples = 891\nvalue = [549, 342]"] ;
1 [label="X[1] <= 1.5\ngini = 0.264\nsamples = 517\nvalue = [436, 81]"] ;
0 -> 1 [labeldistance=2.5, labelangle=45, headlabel="True"] ;
2 [label="X[0] <= 565.5\ngini = 0.452\nsamples = 107\nvalue = [70, 37]"] ;
1 -> 2 ;
3 [label="X[10] <= 5.5\ngini = 0.382\nsamples = 70\nvalue = [52, 18]"] ;
2 -> 3 ;
4 [label="X[0] <= 187.0\ngini = 0.416\nsamples = 61\nvalue = [43, 18]"] ;
3 -> 4 ;
5 [label="X[0] <= 100.5\ngini = 0.245\nsamples = 21\nvalue = [18, 3]"] ;
4 -> 5 ;
6 [label="X[3] <= 0.5\ngini = 0.397\nsamples = 11\nvalue = [8, 3]"] ;
5 -> 6 ;
7 [label="X[10] <= 3.5\ngini = 0.5\nsamples = 6\nvalue = [3, 3]"] ;
6 -> 7 ;
8 [label="gini = 0.0\nsamples = 1\nvalue = [0, 1]"] ;
7 -> 8 ;
9 [label="X[0] <= 60.5\ngini = 0.48\nsamples = 5\nvalue = [3, 2]"] ;
7 -> 9 ;
10 [label="X[0] <= 15.5\ngini = 0.444\nsamples = 3\nvalue = [1, 2]"] ;
9 -> 10 ;
11 [label="gini = 0.0\nsamples = 1\nvalue = [1, 0]"] ;
10 -> 11 ;
12 [label="gini = 0.0\nsamples = 2\nvalue = [0, 2]"] ;
10 -> 12 ;
13 [label="gini = 0.0\nsamples = 2\nvalue = [2, 0]"] ;
9 -> 13 ;
14 [label="gini = 0.0\nsamples = 5\nvalue = [5, 0]"] ;
6 -> 14 ;
15 [label="gini = 0.0\nsamples = 10\nvalue = [10, 0]"] ;
5 -> 15 ;
16 [label="X[0] <= 256.0\ngini = 0.469\nsamples = 40\nvalue = [25, 15]"] ;
4 -> 16 ;
17 [label="gini = 0.0\nsamples = 4\nvalue = [0, 4]"] ;
16 -> 17 ;
18 [label="X[0] <= 361.5\ngini = 0.424\nsamples = 36\nvalue = [25, 11]"] ;
16 -> 18 ;
19 [label="X[0] <= 297.5\ngini = 0.153\nsamples = 12\nvalue = [11, 1]"] ;
18 -> 19 ;
20 [label="gini = 0.0\nsamples = 6\nvalue = [6, 0]"] ;
19 -> 20 ;
21 [label="X[0] <= 315.5\ngini = 0.278\nsamples = 6\nvalue = [5, 1]"] ;
19 -> 21 ;
22 [label="gini = 0.0\nsamples = 1\nvalue = [0, 1]"] ;
21 -> 22 ;
23 [label="gini = 0.0\nsamples = 5\nvalue = [5, 0]"] ;
21 -> 23 ;
24 [label="X[0] <= 462.0\ngini = 0.486\nsamples = 24\nvalue = [14, 10]"] ;
18 -> 24 ;
25 [label="X[5] <= 0.5\ngini = 0.48\nsamples = 10\nvalue = [4, 6]"] ;
24 -> 25 ;
26 [label="X[8] <= 0.5\ngini = 0.32\nsamples = 5\nvalue = [1, 4]"] ;
25 -> 26 ;
27 [label="X[0] <= 413.0\ngini = 0.5\nsamples = 2\nvalue = [1, 1]"] ;
26 -> 27 ;
28 [label="gini = 0.0\nsamples = 1\nvalue = [0, 1]"] ;
27 -> 28 ;
29 [label="gini = 0.0\nsamples = 1\nvalue = [1, 0]"] ;
27 -> 29 ;
30 [label="gini = 0.0\nsamples = 3\nvalue = [0, 3]"] ;
26 -> 30 ;
31 [label="X[3] <= 0.5\ngini = 0.48\nsamples = 5\nvalue = [3, 2]"] ;
25 -> 31 ;
32 [label="gini = 0.0\nsamples = 3\nvalue = [3, 0]"] ;
31 -> 32 ;
33 [label="gini = 0.0\nsamples = 2\nvalue = [0, 2]"] ;
31 -> 33 ;
34 [label="X[10] <= 4.0\ngini = 0.408\nsamples = 14\nvalue = [10, 4]"] ;
24 -> 34 ;
35 [label="X[6] <= 1.5\ngini = 0.444\nsamples = 3\nvalue = [1, 2]"] ;
34 -> 35 ;
36 [label="X[0] <= 495.5\ngini = 0.5\nsamples = 2\nvalue = [1, 1]"] ;
35 -> 36 ;
37 [label="gini = 0.0\nsamples = 1\nvalue = [0, 1]"] ;
36 -> 37 ;
38 [label="gini = 0.0\nsamples = 1\nvalue = [1, 0]"] ;
36 -> 38 ;
39 [label="gini = 0.0\nsamples = 1\nvalue = [0, 1]"] ;
35 -> 39 ;
40 [label="X[0] <= 500.5\ngini = 0.298\nsamples = 11\nvalue = [9, 2]"] ;
34 -> 40 ;
41 [label="gini = 0.0\nsamples = 5\nvalue = [5, 0]"] ;
40 -> 41 ;
42 [label="X[0] <= 514.5\ngini = 0.444\nsamples = 6\nvalue = [4, 2]"] ;
40 -> 42 ;
43 [label="gini = 0.0\nsamples = 2\nvalue = [0, 2]"] ;
42 -> 43 ;
44 [label="gini = 0.0\nsamples = 4\nvalue = [4, 0]"] ;
42 -> 44 ;
45 [label="gini = 0.0\nsamples = 9\nvalue = [9, 0]"] ;
3 -> 45 ;
46 [label="X[0] <= 741.5\ngini = 0.5\nsamples = 37\nvalue = [18, 19]"] ;
2 -> 46 ;
47 [label="X[10] <= 4.5\ngini = 0.461\nsamples = 25\nvalue = [9, 16]"] ;
46 -> 47 ;
48 [label="X[3] <= 0.5\ngini = 0.219\nsamples = 8\nvalue = [1, 7]"] ;
47 -> 48 ;
49 [label="gini = 0.0\nsamples = 5\nvalue = [0, 5]"] ;
48 -> 49 ;
50 [label="X[0] <= 681.5\ngini = 0.444\nsamples = 3\nvalue = [1, 2]"] ;
48 -> 50 ;
51 [label="gini = 0.0\nsamples = 1\nvalue = [1, 0]"] ;
50 -> 51 ;
52 [label="gini = 0.0\nsamples = 2\nvalue = [0, 2]"] ;
50 -> 52 ;
53 [label="X[3] <= 0.5\ngini = 0.498\nsamples = 17\nvalue = [8, 9]"] ;
47 -> 53 ;
54 [label="X[0] <= 671.5\ngini = 0.486\nsamples = 12\nvalue = [7, 5]"] ;
53 -> 54 ;
55 [label="X[0] <= 578.5\ngini = 0.375\nsamples = 8\nvalue = [6, 2]"] ;
54 -> 55 ;
56 [label="gini = 0.0\nsamples = 1\nvalue = [0, 1]"] ;
55 -> 56 ;
57 [label="X[10] <= 5.5\ngini = 0.245\nsamples = 7\nvalue = [6, 1]"] ;
55 -> 57 ;
58 [label="gini = 0.0\nsamples = 5\nvalue = [5, 0]"] ;
57 -> 58 ;
59 [label="X[0] <= 628.5\ngini = 0.5\nsamples = 2\nvalue = [1, 1]"] ;
57 -> 59 ;
60 [label="gini = 0.0\nsamples = 1\nvalue = [1, 0]"] ;
59 -> 60 ;
61 [label="gini = 0.0\nsamples = 1\nvalue = [0, 1]"] ;
59 -> 61 ;
62 [label="X[0] <= 710.0\ngini = 0.375\nsamples = 4\nvalue = [1, 3]"] ;
54 -> 62 ;
63 [label="gini = 0.0\nsamples = 2\nvalue = [0, 2]"] ;
62 -> 63 ;
64 [label="X[0] <= 726.5\ngini = 0.5\nsamples = 2\nvalue = [1, 1]"] ;
62 -> 64 ;
65 [label="gini = 0.0\nsamples = 1\nvalue = [1, 0]"] ;
64 -> 65 ;
66 [label="gini = 0.0\nsamples = 1\nvalue = [0, 1]"] ;
64 -> 66 ;
67 [label="X[7] <= 1.5\ngini = 0.32\nsamples = 5\nvalue = [1, 4]"] ;
53 -> 67 ;
68 [label="gini = 0.0\nsamples = 3\nvalue = [0, 3]"] ;
67 -> 68 ;
69 [label="X[0] <= 643.5\ngini = 0.5\nsamples = 2\nvalue = [1, 1]"] ;
67 -> 69 ;
70 [label="gini = 0.0\nsamples = 1\nvalue = [0, 1]"] ;
69 -> 70 ;
71 [label="gini = 0.0\nsamples = 1\nvalue = [1, 0]"] ;
69 -> 71 ;
72 [label="X[0] <= 828.0\ngini = 0.375\nsamples = 12\nvalue = [9, 3]"] ;
46 -> 72 ;
73 [label="gini = 0.0\nsamples = 7\nvalue = [7, 0]"] ;
72 -> 73 ;
74 [label="X[5] <= 0.5\ngini = 0.48\nsamples = 5\nvalue = [2, 3]"] ;
72 -> 74 ;
75 [label="X[0] <= 863.0\ngini = 0.444\nsamples = 3\nvalue = [2, 1]"] ;
74 -> 75 ;
76 [label="gini = 0.0\nsamples = 1\nvalue = [0, 1]"] ;
75 -> 76 ;
77 [label="gini = 0.0\nsamples = 2\nvalue = [2, 0]"] ;
75 -> 77 ;
78 [label="gini = 0.0\nsamples = 2\nvalue = [0, 2]"] ;
74 -> 78 ;
79 [label="X[0] <= 581.5\ngini = 0.192\nsamples = 410\nvalue = [366, 44]"] ;
1 -> 79 ;
80 [label="X[0] <= 569.5\ngini = 0.225\nsamples = 256\nvalue = [223, 33]"] ;
79 -> 80 ;
81 [label="X[4] <= 0.5\ngini = 0.21\nsamples = 251\nvalue = [221, 30]"] ;
80 -> 81 ;
82 [label="X[0] <= 37.5\ngini = 0.227\nsamples = 230\nvalue = [200, 30]"] ;
81 -> 82 ;
83 [label="X[0] <= 35.5\ngini = 0.397\nsamples = 11\nvalue = [8, 3]"] ;
82 -> 83 ;
84 [label="X[1] <= 2.5\ngini = 0.32\nsamples = 10\nvalue = [8, 2]"] ;
83 -> 84 ;
85 [label="X[11] <= 0.5\ngini = 0.5\nsamples = 4\nvalue = [2, 2]"] ;
84 -> 85 ;
86 [label="X[10] <= 5.0\ngini = 0.444\nsamples = 3\nvalue = [1, 2]"] ;
85 -> 86 ;
87 [label="gini = 0.0\nsamples = 2\nvalue = [0, 2]"] ;
86 -> 87 ;
88 [label="gini = 0.0\nsamples = 1\nvalue = [1, 0]"] ;
86 -> 88 ;
89 [label="gini = 0.0\nsamples = 1\nvalue = [1, 0]"] ;
85 -> 89 ;
90 [label="gini = 0.0\nsamples = 6\nvalue = [6, 0]"] ;
84 -> 90 ;
91 [label="gini = 0.0\nsamples = 1\nvalue = [0, 1]"] ;
83 -> 91 ;
92 [label="X[0] <= 204.5\ngini = 0.216\nsamples = 219\nvalue = [192, 27]"] ;
82 -> 92 ;
93 [label="X[0] <= 150.0\ngini = 0.138\nsamples = 67\nvalue = [62, 5]"] ;
92 -> 93 ;
94 [label="X[0] <= 146.0\ngini = 0.18\nsamples = 50\nvalue = [45, 5]"] ;
93 -> 94 ;
95 [label="X[0] <= 74.5\ngini = 0.15\nsamples = 49\nvalue = [45, 4]"] ;
94 -> 95 ;
96 [label="gini = 0.0\nsamples = 13\nvalue = [13, 0]"] ;
95 -> 96 ;
97 [label="X[0] <= 75.5\ngini = 0.198\nsamples = 36\nvalue = [32, 4]"] ;
95 -> 97 ;
98 [label="gini = 0.0\nsamples = 1\nvalue = [0, 1]"] ;
97 -> 98 ;
99 [label="X[0] <= 129.0\ngini = 0.157\nsamples = 35\nvalue = [32, 3]"] ;
97 -> 99 ;
100 [label="X[0] <= 127.5\ngini = 0.198\nsamples = 27\nvalue = [24, 3]"] ;
99 -> 100 ;
101 [label="X[0] <= 85.0\ngini = 0.142\nsamples = 26\nvalue = [24, 2]"] ;
100 -> 101 ;
102 [label="X[0] <= 81.5\ngini = 0.32\nsamples = 5\nvalue = [4, 1]"] ;
101 -> 102 ;
103 [label="gini = 0.0\nsamples = 4\nvalue = [4, 0]"] ;
102 -> 103 ;
104 [label="gini = 0.0\nsamples = 1\nvalue = [0, 1]"] ;
102 -> 104 ;
105 [label="X[0] <= 107.0\ngini = 0.091\nsamples = 21\nvalue = [20, 1]"] ;
101 -> 105 ;
106 [label="gini = 0.0\nsamples = 11\nvalue = [11, 0]"] ;
105 -> 106 ;
107 [label="X[0] <= 108.5\ngini = 0.18\nsamples = 10\nvalue = [9, 1]"] ;
105 -> 107 ;
108 [label="gini = 0.0\nsamples = 1\nvalue = [0, 1]"] ;
107 -> 108 ;
109 [label="gini = 0.0\nsamples = 9\nvalue = [9, 0]"] ;
107 -> 109 ;
110 [label="gini = 0.0\nsamples = 1\nvalue = [0, 1]"] ;
100 -> 110 ;
111 [label="gini = 0.0\nsamples = 8\nvalue = [8, 0]"] ;
99 -> 111 ;
112 [label="gini = 0.0\nsamples = 1\nvalue = [0, 1]"] ;
94 -> 112 ;
113 [label="gini = 0.0\nsamples = 17\nvalue = [17, 0]"] ;
93 -> 113 ;
114 [label="X[0] <= 209.5\ngini = 0.248\nsamples = 152\nvalue = [130, 22]"] ;
92 -> 114 ;
115 [label="X[6] <= 0.5\ngini = 0.444\nsamples = 3\nvalue = [1, 2]"] ;
114 -> 115 ;
116 [label="gini = 0.0\nsamples = 2\nvalue = [0, 2]"] ;
115 -> 116 ;
117 [label="gini = 0.0\nsamples = 1\nvalue = [1, 0]"] ;
115 -> 117 ;
118 [label="X[0] <= 302.5\ngini = 0.232\nsamples = 149\nvalue = [129, 20]"] ;
114 -> 118 ;
119 [label="X[0] <= 267.0\ngini = 0.308\nsamples = 42\nvalue = [34, 8]"] ;
118 -> 119 ;
120 [label="X[10] <= 2.5\ngini = 0.137\nsamples = 27\nvalue = [25, 2]"] ;
119 -> 120 ;
121 [label="X[0] <= 225.0\ngini = 0.5\nsamples = 2\nvalue = [1, 1]"] ;
120 -> 121 ;
122 [label="gini = 0.0\nsamples = 1\nvalue = [0, 1]"] ;
121 -> 122 ;
123 [label="gini = 0.0\nsamples = 1\nvalue = [1, 0]"] ;
121 -> 123 ;
124 [label="X[10] <= 3.5\ngini = 0.077\nsamples = 25\nvalue = [24, 1]"] ;
120 -> 124 ;
125 [label="X[1] <= 2.5\ngini = 0.219\nsamples = 8\nvalue = [7, 1]"] ;
124 -> 125 ;
126 [label="X[0] <= 231.0\ngini = 0.444\nsamples = 3\nvalue = [2, 1]"] ;
125 -> 126 ;
127 [label="gini = 0.0\nsamples = 1\nvalue = [0, 1]"] ;
126 -> 127 ;
128 [label="gini = 0.0\nsamples = 2\nvalue = [2, 0]"] ;
126 -> 128 ;
129 [label="gini = 0.0\nsamples = 5\nvalue = [5, 0]"] ;
125 -> 129 ;
130 [label="gini = 0.0\nsamples = 17\nvalue = [17, 0]"] ;
124 -> 130 ;
131 [label="X[6] <= 0.5\ngini = 0.48\nsamples = 15\nvalue = [9, 6]"] ;
119 -> 131 ;
132 [label="X[5] <= 0.5\ngini = 0.426\nsamples = 13\nvalue = [9, 4]"] ;
131 -> 132 ;
133 [label="X[0] <= 275.0\ngini = 0.494\nsamples = 9\nvalue = [5, 4]"] ;
132 -> 133 ;
134 [label="gini = 0.0\nsamples = 1\nvalue = [0, 1]"] ;
133 -> 134 ;
135 [label="X[0] <= 283.5\ngini = 0.469\nsamples = 8\nvalue = [5, 3]"] ;
133 -> 135 ;
136 [label="gini = 0.0\nsamples = 3\nvalue = [3, 0]"] ;
135 -> 136 ;
137 [label="X[0] <= 287.5\ngini = 0.48\nsamples = 5\nvalue = [2, 3]"] ;
135 -> 137 ;
138 [label="gini = 0.0\nsamples = 2\nvalue = [0, 2]"] ;
137 -> 138 ;
139 [label="X[1] <= 2.5\ngini = 0.444\nsamples = 3\nvalue = [2, 1]"] ;
137 -> 139 ;
140 [label="gini = 0.0\nsamples = 1\nvalue = [0, 1]"] ;
139 -> 140 ;
141 [label="gini = 0.0\nsamples = 2\nvalue = [2, 0]"] ;
139 -> 141 ;
142 [label="gini = 0.0\nsamples = 4\nvalue = [4, 0]"] ;
132 -> 142 ;
143 [label="gini = 0.0\nsamples = 2\nvalue = [0, 2]"] ;
131 -> 143 ;
144 [label="X[0] <= 390.5\ngini = 0.199\nsamples = 107\nvalue = [95, 12]"] ;
118 -> 144 ;
145 [label="X[10] <= 4.5\ngini = 0.064\nsamples = 30\nvalue = [29, 1]"] ;
144 -> 145 ;
146 [label="gini = 0.0\nsamples = 26\nvalue = [26, 0]"] ;
145 -> 146 ;
147 [label="X[0] <= 342.0\ngini = 0.375\nsamples = 4\nvalue = [3, 1]"] ;
145 -> 147 ;
148 [label="X[0] <= 333.0\ngini = 0.5\nsamples = 2\nvalue = [1, 1]"] ;
147 -> 148 ;
149 [label="gini = 0.0\nsamples = 1\nvalue = [1, 0]"] ;
148 -> 149 ;
150 [label="gini = 0.0\nsamples = 1\nvalue = [0, 1]"] ;
148 -> 150 ;
151 [label="gini = 0.0\nsamples = 2\nvalue = [2, 0]"] ;
147 -> 151 ;
152 [label="X[0] <= 392.5\ngini = 0.245\nsamples = 77\nvalue = [66, 11]"] ;
144 -> 152 ;
153 [label="gini = 0.0\nsamples = 1\nvalue = [0, 1]"] ;
152 -> 153 ;
154 [label="X[0] <= 541.5\ngini = 0.229\nsamples = 76\nvalue = [66, 10]"] ;
152 -> 154 ;
155 [label="X[0] <= 458.0\ngini = 0.195\nsamples = 64\nvalue = [57, 7]"] ;
154 -> 155 ;
156 [label="X[0] <= 455.5\ngini = 0.293\nsamples = 28\nvalue = [23, 5]"] ;
155 -> 156 ;
157 [label="X[10] <= 4.5\ngini = 0.252\nsamples = 27\nvalue = [23, 4]"] ;
156 -> 157 ;
158 [label="X[0] <= 429.5\ngini = 0.159\nsamples = 23\nvalue = [21, 2]"] ;
157 -> 158 ;
159 [label="gini = 0.0\nsamples = 15\nvalue = [15, 0]"] ;
158 -> 159 ;
160 [label="X[0] <= 432.0\ngini = 0.375\nsamples = 8\nvalue = [6, 2]"] ;
158 -> 160 ;
161 [label="gini = 0.0\nsamples = 1\nvalue = [0, 1]"] ;
160 -> 161 ;
162 [label="X[0] <= 444.0\ngini = 0.245\nsamples = 7\nvalue = [6, 1]"] ;
160 -> 162 ;
163 [label="gini = 0.0\nsamples = 4\nvalue = [4, 0]"] ;
162 -> 163 ;
164 [label="X[0] <= 448.5\ngini = 0.444\nsamples = 3\nvalue = [2, 1]"] ;
162 -> 164 ;
165 [label="gini = 0.0\nsamples = 1\nvalue = [0, 1]"] ;
164 -> 165 ;
166 [label="gini = 0.0\nsamples = 2\nvalue = [2, 0]"] ;
164 -> 166 ;
167 [label="X[1] <= 2.5\ngini = 0.5\nsamples = 4\nvalue = [2, 2]"] ;
157 -> 167 ;
168 [label="gini = 0.0\nsamples = 1\nvalue = [1, 0]"] ;
167 -> 168 ;
169 [label="X[0] <= 404.0\ngini = 0.444\nsamples = 3\nvalue = [1, 2]"] ;
167 -> 169 ;
170 [label="gini = 0.0\nsamples = 1\nvalue = [0, 1]"] ;
169 -> 170 ;
171 [label="X[0] <= 411.0\ngini = 0.5\nsamples = 2\nvalue = [1, 1]"] ;
169 -> 171 ;
172 [label="gini = 0.0\nsamples = 1\nvalue = [1, 0]"] ;
171 -> 172 ;
173 [label="gini = 0.0\nsamples = 1\nvalue = [0, 1]"] ;
171 -> 173 ;
174 [label="gini = 0.0\nsamples = 1\nvalue = [0, 1]"] ;
156 -> 174 ;
175 [label="X[0] <= 509.5\ngini = 0.105\nsamples = 36\nvalue = [34, 2]"] ;
155 -> 175 ;
176 [label="gini = 0.0\nsamples = 23\nvalue = [23, 0]"] ;
175 -> 176 ;
177 [label="X[0] <= 511.5\ngini = 0.26\nsamples = 13\nvalue = [11, 2]"] ;
175 -> 177 ;
178 [label="gini = 0.0\nsamples = 2\nvalue = [0, 2]"] ;
177 -> 178 ;
179 [label="gini = 0.0\nsamples = 11\nvalue = [11, 0]"] ;
177 -> 179 ;
180 [label="X[0] <= 550.0\ngini = 0.375\nsamples = 12\nvalue = [9, 3]"] ;
154 -> 180 ;
181 [label="gini = 0.0\nsamples = 2\nvalue = [0, 2]"] ;
180 -> 181 ;
182 [label="X[10] <= 3.5\ngini = 0.18\nsamples = 10\nvalue = [9, 1]"] ;
180 -> 182 ;
183 [label="X[5] <= 0.5\ngini = 0.444\nsamples = 3\nvalue = [2, 1]"] ;
182 -> 183 ;
184 [label="gini = 0.0\nsamples = 2\nvalue = [2, 0]"] ;
183 -> 184 ;
185 [label="gini = 0.0\nsamples = 1\nvalue = [0, 1]"] ;
183 -> 185 ;
186 [label="gini = 0.0\nsamples = 7\nvalue = [7, 0]"] ;
182 -> 186 ;
187 [label="gini = 0.0\nsamples = 21\nvalue = [21, 0]"] ;
81 -> 187 ;
188 [label="X[10] <= 3.5\ngini = 0.48\nsamples = 5\nvalue = [2, 3]"] ;
80 -> 188 ;
189 [label="gini = 0.0\nsamples = 2\nvalue = [2, 0]"] ;
188 -> 189 ;
190 [label="gini = 0.0\nsamples = 3\nvalue = [0, 3]"] ;
188 -> 190 ;
191 [label="X[10] <= 4.5\ngini = 0.133\nsamples = 154\nvalue = [143, 11]"] ;
79 -> 191 ;
192 [label="X[0] <= 840.0\ngini = 0.162\nsamples = 124\nvalue = [113, 11]"] ;
191 -> 192 ;
193 [label="X[0] <= 838.5\ngini = 0.186\nsamples = 106\nvalue = [95, 11]"] ;
192 -> 193 ;
194 [label="X[0] <= 803.0\ngini = 0.172\nsamples = 105\nvalue = [95, 10]"] ;
193 -> 194 ;
195 [label="X[0] <= 764.0\ngini = 0.143\nsamples = 90\nvalue = [83, 7]"] ;
194 -> 195 ;
196 [label="X[0] <= 762.0\ngini = 0.171\nsamples = 74\nvalue = [67, 7]"] ;
195 -> 196 ;
197 [label="X[11] <= 0.5\ngini = 0.151\nsamples = 73\nvalue = [67, 6]"] ;
196 -> 197 ;
198 [label="X[0] <= 662.0\ngini = 0.103\nsamples = 55\nvalue = [52, 3]"] ;
197 -> 198 ;
199 [label="gini = 0.0\nsamples = 24\nvalue = [24, 0]"] ;
198 -> 199 ;
200 [label="X[0] <= 666.0\ngini = 0.175\nsamples = 31\nvalue = [28, 3]"] ;
198 -> 200 ;
201 [label="gini = 0.0\nsamples = 1\nvalue = [0, 1]"] ;
200 -> 201 ;
202 [label="X[0] <= 674.5\ngini = 0.124\nsamples = 30\nvalue = [28, 2]"] ;
200 -> 202 ;
203 [label="X[0] <= 671.0\ngini = 0.444\nsamples = 3\nvalue = [2, 1]"] ;
202 -> 203 ;
204 [label="gini = 0.0\nsamples = 2\nvalue = [2, 0]"] ;
203 -> 204 ;
205 [label="gini = 0.0\nsamples = 1\nvalue = [0, 1]"] ;
203 -> 205 ;
206 [label="X[0] <= 742.5\ngini = 0.071\nsamples = 27\nvalue = [26, 1]"] ;
202 -> 206 ;
207 [label="gini = 0.0\nsamples = 20\nvalue = [20, 0]"] ;
206 -> 207 ;
208 [label="X[0] <= 747.5\ngini = 0.245\nsamples = 7\nvalue = [6, 1]"] ;
206 -> 208 ;
209 [label="gini = 0.0\nsamples = 1\nvalue = [0, 1]"] ;
208 -> 209 ;
210 [label="gini = 0.0\nsamples = 6\nvalue = [6, 0]"] ;
208 -> 210 ;
211 [label="X[0] <= 624.0\ngini = 0.278\nsamples = 18\nvalue = [15, 3]"] ;
197 -> 211 ;
212 [label="gini = 0.0\nsamples = 1\nvalue = [0, 1]"] ;
211 -> 212 ;
213 [label="X[6] <= 0.5\ngini = 0.208\nsamples = 17\nvalue = [15, 2]"] ;
211 -> 213 ;
214 [label="X[0] <= 706.0\ngini = 0.408\nsamples = 7\nvalue = [5, 2]"] ;
213 -> 214 ;
215 [label="X[0] <= 634.5\ngini = 0.444\nsamples = 3\nvalue = [1, 2]"] ;
214 -> 215 ;
216 [label="gini = 0.0\nsamples = 1\nvalue = [1, 0]"] ;
215 -> 216 ;
217 [label="gini = 0.0\nsamples = 2\nvalue = [0, 2]"] ;
215 -> 217 ;
218 [label="gini = 0.0\nsamples = 4\nvalue = [4, 0]"] ;
214 -> 218 ;
219 [label="gini = 0.0\nsamples = 10\nvalue = [10, 0]"] ;
213 -> 219 ;
220 [label="gini = 0.0\nsamples = 1\nvalue = [0, 1]"] ;
196 -> 220 ;
221 [label="gini = 0.0\nsamples = 16\nvalue = [16, 0]"] ;
195 -> 221 ;
222 [label="X[0] <= 805.5\ngini = 0.32\nsamples = 15\nvalue = [12, 3]"] ;
194 -> 222 ;
223 [label="gini = 0.0\nsamples = 1\nvalue = [0, 1]"] ;
222 -> 223 ;
224 [label="X[5] <= 1.5\ngini = 0.245\nsamples = 14\nvalue = [12, 2]"] ;
222 -> 224 ;
225 [label="X[0] <= 824.5\ngini = 0.153\nsamples = 12\nvalue = [11, 1]"] ;
224 -> 225 ;
226 [label="X[0] <= 820.0\ngini = 0.278\nsamples = 6\nvalue = [5, 1]"] ;
225 -> 226 ;
227 [label="gini = 0.0\nsamples = 5\nvalue = [5, 0]"] ;
226 -> 227 ;
228 [label="gini = 0.0\nsamples = 1\nvalue = [0, 1]"] ;
226 -> 228 ;
229 [label="gini = 0.0\nsamples = 6\nvalue = [6, 0]"] ;
225 -> 229 ;
230 [label="X[0] <= 827.5\ngini = 0.5\nsamples = 2\nvalue = [1, 1]"] ;
224 -> 230 ;
231 [label="gini = 0.0\nsamples = 1\nvalue = [1, 0]"] ;
230 -> 231 ;
232 [label="gini = 0.0\nsamples = 1\nvalue = [0, 1]"] ;
230 -> 232 ;
233 [label="gini = 0.0\nsamples = 1\nvalue = [0, 1]"] ;
193 -> 233 ;
234 [label="gini = 0.0\nsamples = 18\nvalue = [18, 0]"] ;
192 -> 234 ;
235 [label="gini = 0.0\nsamples = 30\nvalue = [30, 0]"] ;
191 -> 235 ;
236 [label="X[7] <= 3.5\ngini = 0.422\nsamples = 374\nvalue = [113, 261]"] ;
0 -> 236 [labeldistance=2.5, labelangle=-45, headlabel="False"] ;
237 [label="X[1] <= 2.5\ngini = 0.346\nsamples = 323\nvalue = [72, 251]"] ;
236 -> 237 ;
238 [label="X[9] <= 3.5\ngini = 0.215\nsamples = 196\nvalue = [24, 172]"] ;
237 -> 238 ;
239 [label="X[0] <= 362.5\ngini = 0.099\nsamples = 173\nvalue = [9, 164]"] ;
238 -> 239 ;
240 [label="X[0] <= 357.5\ngini = 0.157\nsamples = 70\nvalue = [6, 64]"] ;
239 -> 240 ;
241 [label="X[6] <= 2.5\ngini = 0.134\nsamples = 69\nvalue = [5, 64]"] ;
240 -> 241 ;
242 [label="X[0] <= 206.0\ngini = 0.097\nsamples = 59\nvalue = [3, 56]"] ;
241 -> 242 ;
243 [label="X[0] <= 198.0\ngini = 0.204\nsamples = 26\nvalue = [3, 23]"] ;
242 -> 243 ;
244 [label="X[0] <= 172.5\ngini = 0.147\nsamples = 25\nvalue = [2, 23]"] ;
243 -> 244 ;
245 [label="X[0] <= 47.5\ngini = 0.091\nsamples = 21\nvalue = [1, 20]"] ;
244 -> 245 ;
246 [label="X[0] <= 37.0\ngini = 0.245\nsamples = 7\nvalue = [1, 6]"] ;
245 -> 246 ;
247 [label="gini = 0.0\nsamples = 6\nvalue = [0, 6]"] ;
246 -> 247 ;
248 [label="gini = 0.0\nsamples = 1\nvalue = [1, 0]"] ;
246 -> 248 ;
249 [label="gini = 0.0\nsamples = 14\nvalue = [0, 14]"] ;
245 -> 249 ;
250 [label="X[0] <= 184.5\ngini = 0.375\nsamples = 4\nvalue = [1, 3]"] ;
244 -> 250 ;
251 [label="gini = 0.0\nsamples = 1\nvalue = [1, 0]"] ;
250 -> 251 ;
252 [label="gini = 0.0\nsamples = 3\nvalue = [0, 3]"] ;
250 -> 252 ;
253 [label="gini = 0.0\nsamples = 1\nvalue = [1, 0]"] ;
243 -> 253 ;
254 [label="gini = 0.0\nsamples = 33\nvalue = [0, 33]"] ;
242 -> 254 ;
255 [label="X[9] <= 2.5\ngini = 0.32\nsamples = 10\nvalue = [2, 8]"] ;
241 -> 255 ;
256 [label="X[5] <= 0.5\ngini = 0.444\nsamples = 6\nvalue = [2, 4]"] ;
255 -> 256 ;
257 [label="X[10] <= 0.5\ngini = 0.5\nsamples = 4\nvalue = [2, 2]"] ;
256 -> 257 ;
258 [label="gini = 0.0\nsamples = 1\nvalue = [1, 0]"] ;
257 -> 258 ;
259 [label="X[10] <= 3.5\ngini = 0.444\nsamples = 3\nvalue = [1, 2]"] ;
257 -> 259 ;
260 [label="gini = 0.0\nsamples = 2\nvalue = [0, 2]"] ;
259 -> 260 ;
261 [label="gini = 0.0\nsamples = 1\nvalue = [1, 0]"] ;
259 -> 261 ;
262 [label="gini = 0.0\nsamples = 2\nvalue = [0, 2]"] ;
256 -> 262 ;
263 [label="gini = 0.0\nsamples = 4\nvalue = [0, 4]"] ;
255 -> 263 ;
264 [label="gini = 0.0\nsamples = 1\nvalue = [1, 0]"] ;
240 -> 264 ;
265 [label="X[0] <= 769.5\ngini = 0.057\nsamples = 103\nvalue = [3, 100]"] ;
239 -> 265 ;
266 [label="X[7] <= 2.5\ngini = 0.025\nsamples = 79\nvalue = [1, 78]"] ;
265 -> 266 ;
267 [label="gini = 0.0\nsamples = 69\nvalue = [0, 69]"] ;
266 -> 267 ;
268 [label="X[1] <= 1.5\ngini = 0.18\nsamples = 10\nvalue = [1, 9]"] ;
266 -> 268 ;
269 [label="X[10] <= 2.5\ngini = 0.444\nsamples = 3\nvalue = [1, 2]"] ;
268 -> 269 ;
270 [label="gini = 0.0\nsamples = 1\nvalue = [0, 1]"] ;
269 -> 270 ;
271 [label="X[10] <= 4.0\ngini = 0.5\nsamples = 2\nvalue = [1, 1]"] ;
269 -> 271 ;
272 [label="gini = 0.0\nsamples = 1\nvalue = [1, 0]"] ;
271 -> 272 ;
273 [label="gini = 0.0\nsamples = 1\nvalue = [0, 1]"] ;
271 -> 273 ;
274 [label="gini = 0.0\nsamples = 7\nvalue = [0, 7]"] ;
268 -> 274 ;
275 [label="X[0] <= 776.5\ngini = 0.153\nsamples = 24\nvalue = [2, 22]"] ;
265 -> 275 ;
276 [label="gini = 0.0\nsamples = 1\nvalue = [1, 0]"] ;
275 -> 276 ;
277 [label="X[1] <= 1.5\ngini = 0.083\nsamples = 23\nvalue = [1, 22]"] ;
275 -> 277 ;
278 [label="gini = 0.0\nsamples = 15\nvalue = [0, 15]"] ;
277 -> 278 ;
279 [label="X[10] <= 4.5\ngini = 0.219\nsamples = 8\nvalue = [1, 7]"] ;
277 -> 279 ;
280 [label="gini = 0.0\nsamples = 6\nvalue = [0, 6]"] ;
279 -> 280 ;
281 [label="X[3] <= 0.5\ngini = 0.5\nsamples = 2\nvalue = [1, 1]"] ;
279 -> 281 ;
282 [label="gini = 0.0\nsamples = 1\nvalue = [0, 1]"] ;
281 -> 282 ;
283 [label="gini = 0.0\nsamples = 1\nvalue = [1, 0]"] ;
281 -> 283 ;
284 [label="X[1] <= 1.5\ngini = 0.454\nsamples = 23\nvalue = [15, 8]"] ;
238 -> 284 ;
285 [label="X[2] <= 0.5\ngini = 0.498\nsamples = 15\nvalue = [7, 8]"] ;
284 -> 285 ;
286 [label="X[0] <= 678.0\ngini = 0.486\nsamples = 12\nvalue = [7, 5]"] ;
285 -> 286 ;
287 [label="X[0] <= 568.5\ngini = 0.469\nsamples = 8\nvalue = [3, 5]"] ;
286 -> 287 ;
288 [label="X[0] <= 348.0\ngini = 0.375\nsamples = 4\nvalue = [3, 1]"] ;
287 -> 288 ;
289 [label="gini = 0.0\nsamples = 2\nvalue = [2, 0]"] ;
288 -> 289 ;
290 [label="X[0] <= 493.5\ngini = 0.5\nsamples = 2\nvalue = [1, 1]"] ;
288 -> 290 ;
291 [label="gini = 0.0\nsamples = 1\nvalue = [0, 1]"] ;
290 -> 291 ;
292 [label="gini = 0.0\nsamples = 1\nvalue = [1, 0]"] ;
290 -> 292 ;
293 [label="gini = 0.0\nsamples = 4\nvalue = [0, 4]"] ;
287 -> 293 ;
294 [label="gini = 0.0\nsamples = 4\nvalue = [4, 0]"] ;
286 -> 294 ;
295 [label="gini = 0.0\nsamples = 3\nvalue = [0, 3]"] ;
285 -> 295 ;
296 [label="gini = 0.0\nsamples = 8\nvalue = [8, 0]"] ;
284 -> 296 ;
297 [label="X[10] <= 1.5\ngini = 0.47\nsamples = 127\nvalue = [48, 79]"] ;
237 -> 297 ;
298 [label="X[9] <= 2.5\ngini = 0.227\nsamples = 23\nvalue = [3, 20]"] ;
297 -> 298 ;
299 [label="X[0] <= 815.5\ngini = 0.355\nsamples = 13\nvalue = [3, 10]"] ;
298 -> 299 ;
300 [label="X[0] <= 434.5\ngini = 0.278\nsamples = 12\nvalue = [2, 10]"] ;
299 -> 300 ;
301 [label="X[0] <= 195.5\ngini = 0.444\nsamples = 6\nvalue = [2, 4]"] ;
300 -> 301 ;
302 [label="gini = 0.0\nsamples = 3\nvalue = [0, 3]"] ;
301 -> 302 ;
303 [label="X[5] <= 0.5\ngini = 0.444\nsamples = 3\nvalue = [2, 1]"] ;
301 -> 303 ;
304 [label="gini = 0.0\nsamples = 2\nvalue = [2, 0]"] ;
303 -> 304 ;
305 [label="gini = 0.0\nsamples = 1\nvalue = [0, 1]"] ;
303 -> 305 ;
306 [label="gini = 0.0\nsamples = 6\nvalue = [0, 6]"] ;
300 -> 306 ;
307 [label="gini = 0.0\nsamples = 1\nvalue = [1, 0]"] ;
299 -> 307 ;
308 [label="gini = 0.0\nsamples = 10\nvalue = [0, 10]"] ;
298 -> 308 ;
309 [label="X[5] <= 1.5\ngini = 0.491\nsamples = 104\nvalue = [45, 59]"] ;
297 -> 309 ;
310 [label="X[9] <= 1.5\ngini = 0.5\nsamples = 72\nvalue = [37, 35]"] ;
309 -> 310 ;
311 [label="X[0] <= 255.5\ngini = 0.482\nsamples = 32\nvalue = [13, 19]"] ;
310 -> 311 ;
312 [label="X[10] <= 4.5\ngini = 0.463\nsamples = 11\nvalue = [7, 4]"] ;
311 -> 312 ;
313 [label="X[6] <= 0.5\ngini = 0.5\nsamples = 8\nvalue = [4, 4]"] ;
312 -> 313 ;
314 [label="gini = 0.0\nsamples = 1\nvalue = [0, 1]"] ;
313 -> 314 ;
315 [label="X[3] <= 2.0\ngini = 0.49\nsamples = 7\nvalue = [4, 3]"] ;
313 -> 315 ;
316 [label="X[0] <= 14.0\ngini = 0.444\nsamples = 6\nvalue = [4, 2]"] ;
315 -> 316 ;
317 [label="gini = 0.0\nsamples = 1\nvalue = [0, 1]"] ;
316 -> 317 ;
318 [label="X[10] <= 3.5\ngini = 0.32\nsamples = 5\nvalue = [4, 1]"] ;
316 -> 318 ;
319 [label="X[0] <= 96.5\ngini = 0.5\nsamples = 2\nvalue = [1, 1]"] ;
318 -> 319 ;
320 [label="gini = 0.0\nsamples = 1\nvalue = [1, 0]"] ;
319 -> 320 ;
321 [label="gini = 0.0\nsamples = 1\nvalue = [0, 1]"] ;
319 -> 321 ;
322 [label="gini = 0.0\nsamples = 3\nvalue = [3, 0]"] ;
318 -> 322 ;
323 [label="gini = 0.0\nsamples = 1\nvalue = [0, 1]"] ;
315 -> 323 ;
324 [label="gini = 0.0\nsamples = 3\nvalue = [3, 0]"] ;
312 -> 324 ;
325 [label="X[4] <= 1.5\ngini = 0.408\nsamples = 21\nvalue = [6, 15]"] ;
311 -> 325 ;
326 [label="X[0] <= 355.5\ngini = 0.457\nsamples = 17\nvalue = [6, 11]"] ;
325 -> 326 ;
327 [label="gini = 0.0\nsamples = 3\nvalue = [0, 3]"] ;
326 -> 327 ;
328 [label="X[6] <= 2.5\ngini = 0.49\nsamples = 14\nvalue = [6, 8]"] ;
326 -> 328 ;
329 [label="X[0] <= 708.0\ngini = 0.444\nsamples = 12\nvalue = [4, 8]"] ;
328 -> 329 ;
330 [label="X[0] <= 569.5\ngini = 0.5\nsamples = 8\nvalue = [4, 4]"] ;
329 -> 330 ;
331 [label="X[0] <= 424.0\ngini = 0.444\nsamples = 6\nvalue = [2, 4]"] ;
330 -> 331 ;
332 [label="X[6] <= 1.0\ngini = 0.444\nsamples = 3\nvalue = [2, 1]"] ;
331 -> 332 ;
333 [label="X[5] <= 0.5\ngini = 0.5\nsamples = 2\nvalue = [1, 1]"] ;
332 -> 333 ;
334 [label="gini = 0.0\nsamples = 1\nvalue = [1, 0]"] ;
333 -> 334 ;
335 [label="gini = 0.0\nsamples = 1\nvalue = [0, 1]"] ;
333 -> 335 ;
336 [label="gini = 0.0\nsamples = 1\nvalue = [1, 0]"] ;
332 -> 336 ;
337 [label="gini = 0.0\nsamples = 3\nvalue = [0, 3]"] ;
331 -> 337 ;
338 [label="gini = 0.0\nsamples = 2\nvalue = [2, 0]"] ;
330 -> 338 ;
339 [label="gini = 0.0\nsamples = 4\nvalue = [0, 4]"] ;
329 -> 339 ;
340 [label="gini = 0.0\nsamples = 2\nvalue = [2, 0]"] ;
328 -> 340 ;
341 [label="gini = 0.0\nsamples = 4\nvalue = [0, 4]"] ;
325 -> 341 ;
342 [label="X[0] <= 226.5\ngini = 0.48\nsamples = 40\nvalue = [24, 16]"] ;
310 -> 342 ;
343 [label="X[0] <= 122.0\ngini = 0.49\nsamples = 14\nvalue = [6, 8]"] ;
342 -> 343 ;
344 [label="X[0] <= 109.5\ngini = 0.48\nsamples = 10\nvalue = [6, 4]"] ;
343 -> 344 ;
345 [label="X[3] <= 1.5\ngini = 0.49\nsamples = 7\nvalue = [3, 4]"] ;
344 -> 345 ;
346 [label="X[5] <= 0.5\ngini = 0.444\nsamples = 6\nvalue = [2, 4]"] ;
345 -> 346 ;
347 [label="X[10] <= 2.5\ngini = 0.48\nsamples = 5\nvalue = [2, 3]"] ;
346 -> 347 ;
348 [label="gini = 0.0\nsamples = 1\nvalue = [1, 0]"] ;
347 -> 348 ;
349 [label="X[0] <= 90.5\ngini = 0.375\nsamples = 4\nvalue = [1, 3]"] ;
347 -> 349 ;
350 [label="gini = 0.0\nsamples = 2\nvalue = [0, 2]"] ;
349 -> 350 ;
351 [label="X[10] <= 3.5\ngini = 0.5\nsamples = 2\nvalue = [1, 1]"] ;
349 -> 351 ;
352 [label="gini = 0.0\nsamples = 1\nvalue = [0, 1]"] ;
351 -> 352 ;
353 [label="gini = 0.0\nsamples = 1\nvalue = [1, 0]"] ;
351 -> 353 ;
354 [label="gini = 0.0\nsamples = 1\nvalue = [0, 1]"] ;
346 -> 354 ;
355 [label="gini = 0.0\nsamples = 1\nvalue = [1, 0]"] ;
345 -> 355 ;
356 [label="gini = 0.0\nsamples = 3\nvalue = [3, 0]"] ;
344 -> 356 ;
357 [label="gini = 0.0\nsamples = 4\nvalue = [0, 4]"] ;
343 -> 357 ;
358 [label="X[0] <= 545.0\ngini = 0.426\nsamples = 26\nvalue = [18, 8]"] ;
342 -> 358 ;
359 [label="X[0] <= 387.0\ngini = 0.26\nsamples = 13\nvalue = [11, 2]"] ;
358 -> 359 ;
360 [label="X[0] <= 305.0\ngini = 0.408\nsamples = 7\nvalue = [5, 2]"] ;
359 -> 360 ;
361 [label="gini = 0.0\nsamples = 5\nvalue = [5, 0]"] ;
360 -> 361 ;
362 [label="gini = 0.0\nsamples = 2\nvalue = [0, 2]"] ;
360 -> 362 ;
363 [label="gini = 0.0\nsamples = 6\nvalue = [6, 0]"] ;
359 -> 363 ;
364 [label="X[7] <= 0.5\ngini = 0.497\nsamples = 13\nvalue = [7, 6]"] ;
358 -> 364 ;
365 [label="X[0] <= 797.5\ngini = 0.48\nsamples = 10\nvalue = [4, 6]"] ;
364 -> 365 ;
366 [label="X[0] <= 607.5\ngini = 0.278\nsamples = 6\nvalue = [1, 5]"] ;
365 -> 366 ;
367 [label="X[10] <= 2.5\ngini = 0.5\nsamples = 2\nvalue = [1, 1]"] ;
366 -> 367 ;
368 [label="gini = 0.0\nsamples = 1\nvalue = [1, 0]"] ;
367 -> 368 ;
369 [label="gini = 0.0\nsamples = 1\nvalue = [0, 1]"] ;
367 -> 369 ;
370 [label="gini = 0.0\nsamples = 4\nvalue = [0, 4]"] ;
366 -> 370 ;
371 [label="X[5] <= 0.5\ngini = 0.375\nsamples = 4\nvalue = [3, 1]"] ;
365 -> 371 ;
372 [label="gini = 0.0\nsamples = 3\nvalue = [3, 0]"] ;
371 -> 372 ;
373 [label="gini = 0.0\nsamples = 1\nvalue = [0, 1]"] ;
371 -> 373 ;
374 [label="gini = 0.0\nsamples = 3\nvalue = [3, 0]"] ;
364 -> 374 ;
375 [label="X[0] <= 435.5\ngini = 0.375\nsamples = 32\nvalue = [8, 24]"] ;
309 -> 375 ;
376 [label="X[0] <= 253.5\ngini = 0.095\nsamples = 20\nvalue = [1, 19]"] ;
375 -> 376 ;
377 [label="gini = 0.0\nsamples = 12\nvalue = [0, 12]"] ;
376 -> 377 ;
378 [label="X[0] <= 270.0\ngini = 0.219\nsamples = 8\nvalue = [1, 7]"] ;
376 -> 378 ;
379 [label="gini = 0.0\nsamples = 1\nvalue = [1, 0]"] ;
378 -> 379 ;
380 [label="gini = 0.0\nsamples = 7\nvalue = [0, 7]"] ;
378 -> 380 ;
381 [label="X[10] <= 2.5\ngini = 0.486\nsamples = 12\nvalue = [7, 5]"] ;
375 -> 381 ;
382 [label="X[0] <= 689.5\ngini = 0.494\nsamples = 9\nvalue = [4, 5]"] ;
381 -> 382 ;
383 [label="X[0] <= 654.5\ngini = 0.49\nsamples = 7\nvalue = [4, 3]"] ;
382 -> 383 ;
384 [label="X[0] <= 603.5\ngini = 0.48\nsamples = 5\nvalue = [2, 3]"] ;
383 -> 384 ;
385 [label="X[0] <= 538.5\ngini = 0.444\nsamples = 3\nvalue = [2, 1]"] ;
384 -> 385 ;
386 [label="gini = 0.0\nsamples = 1\nvalue = [1, 0]"] ;
385 -> 386 ;
387 [label="X[0] <= 584.0\ngini = 0.5\nsamples = 2\nvalue = [1, 1]"] ;
385 -> 387 ;
388 [label="gini = 0.0\nsamples = 1\nvalue = [0, 1]"] ;
387 -> 388 ;
389 [label="gini = 0.0\nsamples = 1\nvalue = [1, 0]"] ;
387 -> 389 ;
390 [label="gini = 0.0\nsamples = 2\nvalue = [0, 2]"] ;
384 -> 390 ;
391 [label="gini = 0.0\nsamples = 2\nvalue = [2, 0]"] ;
383 -> 391 ;
392 [label="gini = 0.0\nsamples = 2\nvalue = [0, 2]"] ;
382 -> 392 ;
393 [label="gini = 0.0\nsamples = 3\nvalue = [3, 0]"] ;
381 -> 393 ;
394 [label="X[1] <= 2.5\ngini = 0.315\nsamples = 51\nvalue = [41, 10]"] ;
236 -> 394 ;
395 [label="gini = 0.0\nsamples = 6\nvalue = [0, 6]"] ;
394 -> 395 ;
396 [label="X[11] <= 0.5\ngini = 0.162\nsamples = 45\nvalue = [41, 4]"] ;
394 -> 396 ;
397 [label="gini = 0.0\nsamples = 1\nvalue = [0, 1]"] ;
396 -> 397 ;
398 [label="X[7] <= 5.5\ngini = 0.127\nsamples = 44\nvalue = [41, 3]"] ;
396 -> 398 ;
399 [label="gini = 0.0\nsamples = 25\nvalue = [25, 0]"] ;
398 -> 399 ;
400 [label="X[0] <= 43.0\ngini = 0.266\nsamples = 19\nvalue = [16, 3]"] ;
398 -> 400 ;
401 [label="gini = 0.0\nsamples = 1\nvalue = [0, 1]"] ;
400 -> 401 ;
402 [label="X[0] <= 324.5\ngini = 0.198\nsamples = 18\nvalue = [16, 2]"] ;
400 -> 402 ;
403 [label="X[0] <= 208.5\ngini = 0.375\nsamples = 8\nvalue = [6, 2]"] ;
402 -> 403 ;
404 [label="gini = 0.0\nsamples = 6\nvalue = [6, 0]"] ;
403 -> 404 ;
405 [label="gini = 0.0\nsamples = 2\nvalue = [0, 2]"] ;
403 -> 405 ;
406 [label="gini = 0.0\nsamples = 10\nvalue = [10, 0]"] ;
402 -> 406 ;
}