digraph Tree {
node [shape=box] ;
0 [label="X[10] <= 0.5\ngini = 0.473\nsamples = 891\nvalue = [549, 342]"] ;
1 [label="X[5] <= 1.5\ngini = 0.264\nsamples = 517\nvalue = [436, 81]"] ;
0 -> 1 [labeldistance=2.5, labelangle=45, headlabel="True"] ;
2 [label="X[12] <= 0.5\ngini = 0.467\nsamples = 89\nvalue = [56, 33]"] ;
1 -> 2 ;
3 [label="gini = 0.0\nsamples = 8\nvalue = [8, 0]"] ;
2 -> 3 ;
4 [label="X[0] <= 1.5\ngini = 0.483\nsamples = 81\nvalue = [48, 33]"] ;
2 -> 4 ;
5 [label="X[11] <= 5.5\ngini = 0.477\nsamples = 79\nvalue = [48, 31]"] ;
4 -> 5 ;
6 [label="X[5] <= 0.5\ngini = 0.488\nsamples = 71\nvalue = [41, 30]"] ;
5 -> 6 ;
7 [label="X[11] <= 4.5\ngini = 0.467\nsamples = 43\nvalue = [27, 16]"] ;
6 -> 7 ;
8 [label="X[12] <= 3.5\ngini = 0.498\nsamples = 17\nvalue = [8, 9]"] ;
7 -> 8 ;
9 [label="X[4] <= 0.5\ngini = 0.32\nsamples = 5\nvalue = [1, 4]"] ;
8 -> 9 ;
10 [label="gini = 0.375\nsamples = 4\nvalue = [1, 3]"] ;
9 -> 10 ;
11 [label="gini = 0.0\nsamples = 1\nvalue = [0, 1]"] ;
9 -> 11 ;
12 [label="X[8] <= 0.5\ngini = 0.486\nsamples = 12\nvalue = [7, 5]"] ;
8 -> 12 ;
13 [label="gini = 0.0\nsamples = 2\nvalue = [2, 0]"] ;
12 -> 13 ;
14 [label="X[11] <= 2.5\ngini = 0.5\nsamples = 10\nvalue = [5, 5]"] ;
12 -> 14 ;
15 [label="gini = 0.0\nsamples = 1\nvalue = [0, 1]"] ;
14 -> 15 ;
16 [label="X[2] <= 0.5\ngini = 0.494\nsamples = 9\nvalue = [5, 4]"] ;
14 -> 16 ;
17 [label="X[11] <= 3.5\ngini = 0.375\nsamples = 4\nvalue = [3, 1]"] ;
16 -> 17 ;
18 [label="X[4] <= 0.5\ngini = 0.444\nsamples = 3\nvalue = [2, 1]"] ;
17 -> 18 ;
19 [label="gini = 0.0\nsamples = 1\nvalue = [1, 0]"] ;
18 -> 19 ;
20 [label="gini = 0.5\nsamples = 2\nvalue = [1, 1]"] ;
18 -> 20 ;
21 [label="gini = 0.0\nsamples = 1\nvalue = [1, 0]"] ;
17 -> 21 ;
22 [label="X[4] <= 0.5\ngini = 0.48\nsamples = 5\nvalue = [2, 3]"] ;
16 -> 22 ;
23 [label="X[11] <= 3.5\ngini = 0.5\nsamples = 4\nvalue = [2, 2]"] ;
22 -> 23 ;
24 [label="gini = 0.0\nsamples = 1\nvalue = [1, 0]"] ;
23 -> 24 ;
25 [label="gini = 0.444\nsamples = 3\nvalue = [1, 2]"] ;
23 -> 25 ;
26 [label="gini = 0.0\nsamples = 1\nvalue = [0, 1]"] ;
22 -> 26 ;
27 [label="X[8] <= 2.5\ngini = 0.393\nsamples = 26\nvalue = [19, 7]"] ;
7 -> 27 ;
28 [label="X[3] <= 0.5\ngini = 0.365\nsamples = 25\nvalue = [19, 6]"] ;
27 -> 28 ;
29 [label="X[12] <= 3.5\ngini = 0.408\nsamples = 21\nvalue = [15, 6]"] ;
28 -> 29 ;
30 [label="X[4] <= 0.5\ngini = 0.463\nsamples = 11\nvalue = [7, 4]"] ;
29 -> 30 ;
31 [label="X[6] <= 0.5\ngini = 0.48\nsamples = 10\nvalue = [6, 4]"] ;
30 -> 31 ;
32 [label="gini = 0.444\nsamples = 6\nvalue = [4, 2]"] ;
31 -> 32 ;
33 [label="gini = 0.5\nsamples = 4\nvalue = [2, 2]"] ;
31 -> 33 ;
34 [label="gini = 0.0\nsamples = 1\nvalue = [1, 0]"] ;
30 -> 34 ;
35 [label="X[2] <= 0.5\ngini = 0.32\nsamples = 10\nvalue = [8, 2]"] ;
29 -> 35 ;
36 [label="gini = 0.0\nsamples = 5\nvalue = [5, 0]"] ;
35 -> 36 ;
37 [label="X[4] <= 0.5\ngini = 0.48\nsamples = 5\nvalue = [3, 2]"] ;
35 -> 37 ;
38 [label="gini = 0.444\nsamples = 3\nvalue = [2, 1]"] ;
37 -> 38 ;
39 [label="gini = 0.5\nsamples = 2\nvalue = [1, 1]"] ;
37 -> 39 ;
40 [label="gini = 0.0\nsamples = 4\nvalue = [4, 0]"] ;
28 -> 40 ;
41 [label="gini = 0.0\nsamples = 1\nvalue = [0, 1]"] ;
27 -> 41 ;
42 [label="X[4] <= 0.5\ngini = 0.5\nsamples = 28\nvalue = [14, 14]"] ;
6 -> 42 ;
43 [label="X[12] <= 3.5\ngini = 0.469\nsamples = 16\nvalue = [10, 6]"] ;
42 -> 43 ;
44 [label="X[6] <= 0.5\ngini = 0.48\nsamples = 5\nvalue = [2, 3]"] ;
43 -> 44 ;
45 [label="gini = 0.444\nsamples = 3\nvalue = [1, 2]"] ;
44 -> 45 ;
46 [label="gini = 0.5\nsamples = 2\nvalue = [1, 1]"] ;
44 -> 46 ;
47 [label="X[2] <= 0.5\ngini = 0.397\nsamples = 11\nvalue = [8, 3]"] ;
43 -> 47 ;
48 [label="gini = 0.0\nsamples = 2\nvalue = [2, 0]"] ;
47 -> 48 ;
49 [label="X[11] <= 4.5\ngini = 0.444\nsamples = 9\nvalue = [6, 3]"] ;
47 -> 49 ;
50 [label="gini = 0.0\nsamples = 2\nvalue = [2, 0]"] ;
49 -> 50 ;
51 [label="X[3] <= 0.5\ngini = 0.49\nsamples = 7\nvalue = [4, 3]"] ;
49 -> 51 ;
52 [label="gini = 0.48\nsamples = 5\nvalue = [3, 2]"] ;
51 -> 52 ;
53 [label="gini = 0.5\nsamples = 2\nvalue = [1, 1]"] ;
51 -> 53 ;
54 [label="X[12] <= 3.5\ngini = 0.444\nsamples = 12\nvalue = [4, 8]"] ;
42 -> 54 ;
55 [label="X[6] <= 0.5\ngini = 0.48\nsamples = 5\nvalue = [3, 2]"] ;
54 -> 55 ;
56 [label="X[11] <= 4.5\ngini = 0.375\nsamples = 4\nvalue = [3, 1]"] ;
55 -> 56 ;
57 [label="gini = 0.0\nsamples = 1\nvalue = [1, 0]"] ;
56 -> 57 ;
58 [label="gini = 0.444\nsamples = 3\nvalue = [2, 1]"] ;
56 -> 58 ;
59 [label="gini = 0.0\nsamples = 1\nvalue = [0, 1]"] ;
55 -> 59 ;
60 [label="X[11] <= 2.5\ngini = 0.245\nsamples = 7\nvalue = [1, 6]"] ;
54 -> 60 ;
61 [label="gini = 0.0\nsamples = 1\nvalue = [1, 0]"] ;
60 -> 61 ;
62 [label="gini = 0.0\nsamples = 6\nvalue = [0, 6]"] ;
60 -> 62 ;
63 [label="X[5] <= 0.5\ngini = 0.219\nsamples = 8\nvalue = [7, 1]"] ;
5 -> 63 ;
64 [label="gini = 0.0\nsamples = 3\nvalue = [3, 0]"] ;
63 -> 64 ;
65 [label="X[2] <= 0.5\ngini = 0.32\nsamples = 5\nvalue = [4, 1]"] ;
63 -> 65 ;
66 [label="X[4] <= 0.5\ngini = 0.375\nsamples = 4\nvalue = [3, 1]"] ;
65 -> 66 ;
67 [label="gini = 0.444\nsamples = 3\nvalue = [2, 1]"] ;
66 -> 67 ;
68 [label="gini = 0.0\nsamples = 1\nvalue = [1, 0]"] ;
66 -> 68 ;
69 [label="gini = 0.0\nsamples = 1\nvalue = [1, 0]"] ;
65 -> 69 ;
70 [label="gini = 0.0\nsamples = 2\nvalue = [0, 2]"] ;
4 -> 70 ;
71 [label="X[0] <= 1.5\ngini = 0.199\nsamples = 428\nvalue = [380, 48]"] ;
1 -> 71 ;
72 [label="X[12] <= 3.5\ngini = 0.375\nsamples = 24\nvalue = [18, 6]"] ;
71 -> 72 ;
73 [label="X[11] <= 4.5\ngini = 0.469\nsamples = 16\nvalue = [10, 6]"] ;
72 -> 73 ;
74 [label="gini = 0.0\nsamples = 3\nvalue = [0, 3]"] ;
73 -> 74 ;
75 [label="X[4] <= 0.5\ngini = 0.355\nsamples = 13\nvalue = [10, 3]"] ;
73 -> 75 ;
76 [label="X[11] <= 5.5\ngini = 0.42\nsamples = 10\nvalue = [7, 3]"] ;
75 -> 76 ;
77 [label="X[12] <= 1.5\ngini = 0.469\nsamples = 8\nvalue = [5, 3]"] ;
76 -> 77 ;
78 [label="gini = 0.0\nsamples = 1\nvalue = [1, 0]"] ;
77 -> 78 ;
79 [label="X[6] <= 1.5\ngini = 0.49\nsamples = 7\nvalue = [4, 3]"] ;
77 -> 79 ;
80 [label="X[6] <= 0.5\ngini = 0.5\nsamples = 4\nvalue = [2, 2]"] ;
79 -> 80 ;
81 [label="gini = 0.5\nsamples = 2\nvalue = [1, 1]"] ;
80 -> 81 ;
82 [label="gini = 0.5\nsamples = 2\nvalue = [1, 1]"] ;
80 -> 82 ;
83 [label="gini = 0.444\nsamples = 3\nvalue = [2, 1]"] ;
79 -> 83 ;
84 [label="gini = 0.0\nsamples = 2\nvalue = [2, 0]"] ;
76 -> 84 ;
85 [label="gini = 0.0\nsamples = 3\nvalue = [3, 0]"] ;
75 -> 85 ;
86 [label="gini = 0.0\nsamples = 8\nvalue = [8, 0]"] ;
72 -> 86 ;
87 [label="X[12] <= 3.5\ngini = 0.186\nsamples = 404\nvalue = [362, 42]"] ;
71 -> 87 ;
88 [label="X[3] <= 0.5\ngini = 0.173\nsamples = 388\nvalue = [351, 37]"] ;
87 -> 88 ;
89 [label="X[6] <= 1.5\ngini = 0.18\nsamples = 359\nvalue = [323, 36]"] ;
88 -> 89 ;
90 [label="X[12] <= 1.5\ngini = 0.193\nsamples = 268\nvalue = [239, 29]"] ;
89 -> 90 ;
91 [label="X[2] <= 1.5\ngini = 0.221\nsamples = 198\nvalue = [173, 25]"] ;
90 -> 91 ;
92 [label="X[2] <= 0.5\ngini = 0.224\nsamples = 195\nvalue = [170, 25]"] ;
91 -> 92 ;
93 [label="X[4] <= 0.5\ngini = 0.216\nsamples = 187\nvalue = [164, 23]"] ;
92 -> 93 ;
94 [label="X[11] <= 3.5\ngini = 0.207\nsamples = 162\nvalue = [143, 19]"] ;
93 -> 94 ;
95 [label="X[0] <= 2.5\ngini = 0.169\nsamples = 75\nvalue = [68, 7]"] ;
94 -> 95 ;
96 [label="X[11] <= 2.5\ngini = 0.375\nsamples = 4\nvalue = [3, 1]"] ;
95 -> 96 ;
97 [label="gini = 0.0\nsamples = 1\nvalue = [1, 0]"] ;
96 -> 97 ;
98 [label="gini = 0.444\nsamples = 3\nvalue = [2, 1]"] ;
96 -> 98 ;
99 [label="X[11] <= 2.5\ngini = 0.155\nsamples = 71\nvalue = [65, 6]"] ;
95 -> 99 ;
100 [label="X[12] <= 0.5\ngini = 0.245\nsamples = 14\nvalue = [12, 2]"] ;
99 -> 100 ;
101 [label="gini = 0.0\nsamples = 5\nvalue = [5, 0]"] ;
100 -> 101 ;
102 [label="gini = 0.346\nsamples = 9\nvalue = [7, 2]"] ;
100 -> 102 ;
103 [label="X[12] <= 0.5\ngini = 0.131\nsamples = 57\nvalue = [53, 4]"] ;
99 -> 103 ;
104 [label="gini = 0.211\nsamples = 25\nvalue = [22, 3]"] ;
103 -> 104 ;
105 [label="gini = 0.061\nsamples = 32\nvalue = [31, 1]"] ;
103 -> 105 ;
106 [label="X[12] <= 0.5\ngini = 0.238\nsamples = 87\nvalue = [75, 12]"] ;
94 -> 106 ;
107 [label="X[11] <= 4.5\ngini = 0.191\nsamples = 28\nvalue = [25, 3]"] ;
106 -> 107 ;
108 [label="gini = 0.355\nsamples = 13\nvalue = [10, 3]"] ;
107 -> 108 ;
109 [label="gini = 0.0\nsamples = 15\nvalue = [15, 0]"] ;
107 -> 109 ;
110 [label="X[11] <= 5.5\ngini = 0.259\nsamples = 59\nvalue = [50, 9]"] ;
106 -> 110 ;
111 [label="X[0] <= 2.5\ngini = 0.245\nsamples = 56\nvalue = [48, 8]"] ;
110 -> 111 ;
112 [label="gini = 0.0\nsamples = 8\nvalue = [8, 0]"] ;
111 -> 112 ;
113 [label="X[11] <= 4.5\ngini = 0.278\nsamples = 48\nvalue = [40, 8]"] ;
111 -> 113 ;
114 [label="gini = 0.264\nsamples = 32\nvalue = [27, 5]"] ;
113 -> 114 ;
115 [label="gini = 0.305\nsamples = 16\nvalue = [13, 3]"] ;
113 -> 115 ;
116 [label="gini = 0.444\nsamples = 3\nvalue = [2, 1]"] ;
110 -> 116 ;
117 [label="X[11] <= 4.5\ngini = 0.269\nsamples = 25\nvalue = [21, 4]"] ;
93 -> 117 ;
118 [label="X[12] <= 0.5\ngini = 0.32\nsamples = 20\nvalue = [16, 4]"] ;
117 -> 118 ;
119 [label="X[11] <= 3.5\ngini = 0.305\nsamples = 16\nvalue = [13, 3]"] ;
118 -> 119 ;
120 [label="X[4] <= 1.5\ngini = 0.346\nsamples = 9\nvalue = [7, 2]"] ;
119 -> 120 ;
121 [label="gini = 0.444\nsamples = 6\nvalue = [4, 2]"] ;
120 -> 121 ;
122 [label="gini = 0.0\nsamples = 3\nvalue = [3, 0]"] ;
120 -> 122 ;
123 [label="X[4] <= 1.5\ngini = 0.245\nsamples = 7\nvalue = [6, 1]"] ;
119 -> 123 ;
124 [label="gini = 0.0\nsamples = 4\nvalue = [4, 0]"] ;
123 -> 124 ;
125 [label="gini = 0.444\nsamples = 3\nvalue = [2, 1]"] ;
123 -> 125 ;
126 [label="gini = 0.375\nsamples = 4\nvalue = [3, 1]"] ;
118 -> 126 ;
127 [label="gini = 0.0\nsamples = 5\nvalue = [5, 0]"] ;
117 -> 127 ;
128 [label="X[12] <= 0.5\ngini = 0.375\nsamples = 8\nvalue = [6, 2]"] ;
92 -> 128 ;
129 [label="X[11] <= 2.5\ngini = 0.245\nsamples = 7\nvalue = [6, 1]"] ;
128 -> 129 ;
130 [label="gini = 0.0\nsamples = 2\nvalue = [2, 0]"] ;
129 -> 130 ;
131 [label="X[11] <= 3.5\ngini = 0.32\nsamples = 5\nvalue = [4, 1]"] ;
129 -> 131 ;
132 [label="gini = 0.444\nsamples = 3\nvalue = [2, 1]"] ;
131 -> 132 ;
133 [label="gini = 0.0\nsamples = 2\nvalue = [2, 0]"] ;
131 -> 133 ;
134 [label="gini = 0.0\nsamples = 1\nvalue = [0, 1]"] ;
128 -> 134 ;
135 [label="gini = 0.0\nsamples = 3\nvalue = [3, 0]"] ;
91 -> 135 ;
136 [label="X[11] <= 3.5\ngini = 0.108\nsamples = 70\nvalue = [66, 4]"] ;
90 -> 136 ;
137 [label="gini = 0.0\nsamples = 22\nvalue = [22, 0]"] ;
136 -> 137 ;
138 [label="X[11] <= 4.5\ngini = 0.153\nsamples = 48\nvalue = [44, 4]"] ;
136 -> 138 ;
139 [label="X[4] <= 0.5\ngini = 0.191\nsamples = 28\nvalue = [25, 3]"] ;
138 -> 139 ;
140 [label="X[12] <= 2.5\ngini = 0.165\nsamples = 22\nvalue = [20, 2]"] ;
139 -> 140 ;
141 [label="X[8] <= 0.5\ngini = 0.111\nsamples = 17\nvalue = [16, 1]"] ;
140 -> 141 ;
142 [label="X[0] <= 2.5\ngini = 0.165\nsamples = 11\nvalue = [10, 1]"] ;
141 -> 142 ;
143 [label="gini = 0.18\nsamples = 10\nvalue = [9, 1]"] ;
142 -> 143 ;
144 [label="gini = 0.0\nsamples = 1\nvalue = [1, 0]"] ;
142 -> 144 ;
145 [label="gini = 0.0\nsamples = 6\nvalue = [6, 0]"] ;
141 -> 145 ;
146 [label="X[8] <= 0.5\ngini = 0.32\nsamples = 5\nvalue = [4, 1]"] ;
140 -> 146 ;
147 [label="gini = 0.0\nsamples = 3\nvalue = [3, 0]"] ;
146 -> 147 ;
148 [label="gini = 0.5\nsamples = 2\nvalue = [1, 1]"] ;
146 -> 148 ;
149 [label="X[2] <= 0.5\ngini = 0.278\nsamples = 6\nvalue = [5, 1]"] ;
139 -> 149 ;
150 [label="gini = 0.0\nsamples = 1\nvalue = [0, 1]"] ;
149 -> 150 ;
151 [label="gini = 0.0\nsamples = 5\nvalue = [5, 0]"] ;
149 -> 151 ;
152 [label="X[12] <= 2.5\ngini = 0.095\nsamples = 20\nvalue = [19, 1]"] ;
138 -> 152 ;
153 [label="X[2] <= 0.5\ngini = 0.142\nsamples = 13\nvalue = [12, 1]"] ;
152 -> 153 ;
154 [label="X[6] <= 0.5\ngini = 0.165\nsamples = 11\nvalue = [10, 1]"] ;
153 -> 154 ;
155 [label="gini = 0.0\nsamples = 1\nvalue = [1, 0]"] ;
154 -> 155 ;
156 [label="gini = 0.18\nsamples = 10\nvalue = [9, 1]"] ;
154 -> 156 ;
157 [label="gini = 0.0\nsamples = 2\nvalue = [2, 0]"] ;
153 -> 157 ;
158 [label="gini = 0.0\nsamples = 7\nvalue = [7, 0]"] ;
152 -> 158 ;
159 [label="X[2] <= 1.5\ngini = 0.142\nsamples = 91\nvalue = [84, 7]"] ;
89 -> 159 ;
160 [label="X[0] <= 2.5\ngini = 0.126\nsamples = 89\nvalue = [83, 6]"] ;
159 -> 160 ;
161 [label="X[12] <= 1.0\ngini = 0.346\nsamples = 9\nvalue = [7, 2]"] ;
160 -> 161 ;
162 [label="gini = 0.0\nsamples = 6\nvalue = [6, 0]"] ;
161 -> 162 ;
163 [label="X[4] <= 0.5\ngini = 0.444\nsamples = 3\nvalue = [1, 2]"] ;
161 -> 163 ;
164 [label="gini = 0.0\nsamples = 1\nvalue = [0, 1]"] ;
163 -> 164 ;
165 [label="gini = 0.5\nsamples = 2\nvalue = [1, 1]"] ;
163 -> 165 ;
166 [label="X[12] <= 0.5\ngini = 0.095\nsamples = 80\nvalue = [76, 4]"] ;
160 -> 166 ;
167 [label="X[4] <= 1.5\ngini = 0.153\nsamples = 36\nvalue = [33, 3]"] ;
166 -> 167 ;
168 [label="X[4] <= 0.5\ngini = 0.188\nsamples = 19\nvalue = [17, 2]"] ;
167 -> 168 ;
169 [label="gini = 0.219\nsamples = 8\nvalue = [7, 1]"] ;
168 -> 169 ;
170 [label="gini = 0.165\nsamples = 11\nvalue = [10, 1]"] ;
168 -> 170 ;
171 [label="X[7] <= 0.5\ngini = 0.111\nsamples = 17\nvalue = [16, 1]"] ;
167 -> 171 ;
172 [label="gini = 0.117\nsamples = 16\nvalue = [15, 1]"] ;
171 -> 172 ;
173 [label="gini = 0.0\nsamples = 1\nvalue = [1, 0]"] ;
171 -> 173 ;
174 [label="X[12] <= 1.5\ngini = 0.044\nsamples = 44\nvalue = [43, 1]"] ;
166 -> 174 ;
175 [label="X[4] <= 0.5\ngini = 0.061\nsamples = 32\nvalue = [31, 1]"] ;
174 -> 175 ;
176 [label="gini = 0.069\nsamples = 28\nvalue = [27, 1]"] ;
175 -> 176 ;
177 [label="gini = 0.0\nsamples = 4\nvalue = [4, 0]"] ;
175 -> 177 ;
178 [label="gini = 0.0\nsamples = 12\nvalue = [12, 0]"] ;
174 -> 178 ;
179 [label="X[4] <= 1.5\ngini = 0.5\nsamples = 2\nvalue = [1, 1]"] ;
159 -> 179 ;
180 [label="gini = 0.0\nsamples = 1\nvalue = [1, 0]"] ;
179 -> 180 ;
181 [label="gini = 0.0\nsamples = 1\nvalue = [0, 1]"] ;
179 -> 181 ;
182 [label="X[4] <= 0.5\ngini = 0.067\nsamples = 29\nvalue = [28, 1]"] ;
88 -> 182 ;
183 [label="gini = 0.0\nsamples = 23\nvalue = [23, 0]"] ;
182 -> 183 ;
184 [label="X[12] <= 1.0\ngini = 0.278\nsamples = 6\nvalue = [5, 1]"] ;
182 -> 184 ;
185 [label="gini = 0.0\nsamples = 2\nvalue = [2, 0]"] ;
184 -> 185 ;
186 [label="X[11] <= 3.5\ngini = 0.375\nsamples = 4\nvalue = [3, 1]"] ;
184 -> 186 ;
187 [label="X[3] <= 1.5\ngini = 0.5\nsamples = 2\nvalue = [1, 1]"] ;
186 -> 187 ;
188 [label="gini = 0.0\nsamples = 1\nvalue = [0, 1]"] ;
187 -> 188 ;
189 [label="gini = 0.0\nsamples = 1\nvalue = [1, 0]"] ;
187 -> 189 ;
190 [label="gini = 0.0\nsamples = 2\nvalue = [2, 0]"] ;
186 -> 190 ;
191 [label="X[7] <= 0.5\ngini = 0.43\nsamples = 16\nvalue = [11, 5]"] ;
87 -> 191 ;
192 [label="X[11] <= 3.5\ngini = 0.494\nsamples = 9\nvalue = [4, 5]"] ;
191 -> 192 ;
193 [label="gini = 0.0\nsamples = 2\nvalue = [2, 0]"] ;
192 -> 193 ;
194 [label="X[6] <= 1.5\ngini = 0.408\nsamples = 7\nvalue = [2, 5]"] ;
192 -> 194 ;
195 [label="gini = 0.375\nsamples = 4\nvalue = [1, 3]"] ;
194 -> 195 ;
196 [label="gini = 0.444\nsamples = 3\nvalue = [1, 2]"] ;
194 -> 196 ;
197 [label="gini = 0.0\nsamples = 7\nvalue = [7, 0]"] ;
191 -> 197 ;
198 [label="X[8] <= 3.5\ngini = 0.422\nsamples = 374\nvalue = [113, 261]"] ;
0 -> 198 [labeldistance=2.5, labelangle=-45, headlabel="False"] ;
199 [label="X[0] <= 2.5\ngini = 0.346\nsamples = 323\nvalue = [72, 251]"] ;
198 -> 199 ;
200 [label="X[10] <= 3.5\ngini = 0.215\nsamples = 196\nvalue = [24, 172]"] ;
199 -> 200 ;
201 [label="X[12] <= 3.5\ngini = 0.099\nsamples = 173\nvalue = [9, 164]"] ;
200 -> 201 ;
202 [label="X[11] <= 4.5\ngini = 0.145\nsamples = 89\nvalue = [7, 82]"] ;
201 -> 202 ;
203 [label="X[11] <= 2.5\ngini = 0.086\nsamples = 67\nvalue = [3, 64]"] ;
202 -> 203 ;
204 [label="gini = 0.0\nsamples = 24\nvalue = [0, 24]"] ;
203 -> 204 ;
205 [label="X[2] <= 0.5\ngini = 0.13\nsamples = 43\nvalue = [3, 40]"] ;
203 -> 205 ;
206 [label="X[11] <= 3.5\ngini = 0.074\nsamples = 26\nvalue = [1, 25]"] ;
205 -> 206 ;
207 [label="X[12] <= 2.5\ngini = 0.165\nsamples = 11\nvalue = [1, 10]"] ;
206 -> 207 ;
208 [label="X[4] <= 0.5\ngini = 0.278\nsamples = 6\nvalue = [1, 5]"] ;
207 -> 208 ;
209 [label="X[10] <= 1.5\ngini = 0.375\nsamples = 4\nvalue = [1, 3]"] ;
208 -> 209 ;
210 [label="gini = 0.0\nsamples = 1\nvalue = [0, 1]"] ;
209 -> 210 ;
211 [label="X[6] <= 0.5\ngini = 0.444\nsamples = 3\nvalue = [1, 2]"] ;
209 -> 211 ;
212 [label="gini = 0.0\nsamples = 1\nvalue = [0, 1]"] ;
211 -> 212 ;
213 [label="X[12] <= 1.5\ngini = 0.5\nsamples = 2\nvalue = [1, 1]"] ;
211 -> 213 ;
214 [label="gini = 0.0\nsamples = 1\nvalue = [0, 1]"] ;
213 -> 214 ;
215 [label="gini = 0.0\nsamples = 1\nvalue = [1, 0]"] ;
213 -> 215 ;
216 [label="gini = 0.0\nsamples = 2\nvalue = [0, 2]"] ;
208 -> 216 ;
217 [label="gini = 0.0\nsamples = 5\nvalue = [0, 5]"] ;
207 -> 217 ;
218 [label="gini = 0.0\nsamples = 15\nvalue = [0, 15]"] ;
206 -> 218 ;
219 [label="X[12] <= 2.5\ngini = 0.208\nsamples = 17\nvalue = [2, 15]"] ;
205 -> 219 ;
220 [label="X[8] <= 2.0\ngini = 0.444\nsamples = 3\nvalue = [1, 2]"] ;
219 -> 220 ;
221 [label="X[4] <= 0.5\ngini = 0.5\nsamples = 2\nvalue = [1, 1]"] ;
220 -> 221 ;
222 [label="gini = 0.0\nsamples = 1\nvalue = [1, 0]"] ;
221 -> 222 ;
223 [label="gini = 0.0\nsamples = 1\nvalue = [0, 1]"] ;
221 -> 223 ;
224 [label="gini = 0.0\nsamples = 1\nvalue = [0, 1]"] ;
220 -> 224 ;
225 [label="X[7] <= 2.0\ngini = 0.133\nsamples = 14\nvalue = [1, 13]"] ;
219 -> 225 ;
226 [label="gini = 0.0\nsamples = 6\nvalue = [0, 6]"] ;
225 -> 226 ;
227 [label="X[11] <= 3.5\ngini = 0.219\nsamples = 8\nvalue = [1, 7]"] ;
225 -> 227 ;
228 [label="gini = 0.0\nsamples = 4\nvalue = [0, 4]"] ;
227 -> 228 ;
229 [label="X[8] <= 2.5\ngini = 0.375\nsamples = 4\nvalue = [1, 3]"] ;
227 -> 229 ;
230 [label="gini = 0.444\nsamples = 3\nvalue = [1, 2]"] ;
229 -> 230 ;
231 [label="gini = 0.0\nsamples = 1\nvalue = [0, 1]"] ;
229 -> 231 ;
232 [label="X[5] <= 1.5\ngini = 0.298\nsamples = 22\nvalue = [4, 18]"] ;
202 -> 232 ;
233 [label="X[12] <= 2.0\ngini = 0.48\nsamples = 5\nvalue = [2, 3]"] ;
232 -> 233 ;
234 [label="gini = 0.0\nsamples = 1\nvalue = [1, 0]"] ;
233 -> 234 ;
235 [label="X[4] <= 0.5\ngini = 0.375\nsamples = 4\nvalue = [1, 3]"] ;
233 -> 235 ;
236 [label="gini = 0.0\nsamples = 2\nvalue = [0, 2]"] ;
235 -> 236 ;
237 [label="X[5] <= 0.5\ngini = 0.5\nsamples = 2\nvalue = [1, 1]"] ;
235 -> 237 ;
238 [label="gini = 0.0\nsamples = 1\nvalue = [0, 1]"] ;
237 -> 238 ;
239 [label="gini = 0.0\nsamples = 1\nvalue = [1, 0]"] ;
237 -> 239 ;
240 [label="X[3] <= 0.5\ngini = 0.208\nsamples = 17\nvalue = [2, 15]"] ;
232 -> 240 ;
241 [label="X[2] <= 0.5\ngini = 0.26\nsamples = 13\nvalue = [2, 11]"] ;
240 -> 241 ;
242 [label="X[10] <= 1.5\ngini = 0.18\nsamples = 10\nvalue = [1, 9]"] ;
241 -> 242 ;
243 [label="gini = 0.0\nsamples = 5\nvalue = [0, 5]"] ;
242 -> 243 ;
244 [label="X[12] <= 1.5\ngini = 0.32\nsamples = 5\nvalue = [1, 4]"] ;
242 -> 244 ;
245 [label="gini = 0.0\nsamples = 2\nvalue = [0, 2]"] ;
244 -> 245 ;
246 [label="gini = 0.444\nsamples = 3\nvalue = [1, 2]"] ;
244 -> 246 ;
247 [label="gini = 0.444\nsamples = 3\nvalue = [1, 2]"] ;
241 -> 247 ;
248 [label="gini = 0.0\nsamples = 4\nvalue = [0, 4]"] ;
240 -> 248 ;
249 [label="X[8] <= 2.5\ngini = 0.046\nsamples = 84\nvalue = [2, 82]"] ;
201 -> 249 ;
250 [label="gini = 0.0\nsamples = 76\nvalue = [0, 76]"] ;
249 -> 250 ;
251 [label="X[1] <= 0.5\ngini = 0.375\nsamples = 8\nvalue = [2, 6]"] ;
249 -> 251 ;
252 [label="gini = 0.0\nsamples = 2\nvalue = [0, 2]"] ;
251 -> 252 ;
253 [label="X[11] <= 1.0\ngini = 0.444\nsamples = 6\nvalue = [2, 4]"] ;
251 -> 253 ;
254 [label="gini = 0.0\nsamples = 1\nvalue = [1, 0]"] ;
253 -> 254 ;
255 [label="X[5] <= 1.0\ngini = 0.32\nsamples = 5\nvalue = [1, 4]"] ;
253 -> 255 ;
256 [label="X[11] <= 2.5\ngini = 0.444\nsamples = 3\nvalue = [1, 2]"] ;
255 -> 256 ;
257 [label="gini = 0.0\nsamples = 1\nvalue = [0, 1]"] ;
256 -> 257 ;
258 [label="X[11] <= 4.0\ngini = 0.5\nsamples = 2\nvalue = [1, 1]"] ;
256 -> 258 ;
259 [label="gini = 0.0\nsamples = 1\nvalue = [1, 0]"] ;
258 -> 259 ;
260 [label="gini = 0.0\nsamples = 1\nvalue = [0, 1]"] ;
258 -> 260 ;
261 [label="gini = 0.0\nsamples = 2\nvalue = [0, 2]"] ;
255 -> 261 ;
262 [label="X[6] <= 0.5\ngini = 0.454\nsamples = 23\nvalue = [15, 8]"] ;
200 -> 262 ;
263 [label="X[8] <= 1.5\ngini = 0.42\nsamples = 10\nvalue = [3, 7]"] ;
262 -> 263 ;
264 [label="X[5] <= 0.5\ngini = 0.219\nsamples = 8\nvalue = [1, 7]"] ;
263 -> 264 ;
265 [label="X[4] <= 0.5\ngini = 0.375\nsamples = 4\nvalue = [1, 3]"] ;
264 -> 265 ;
266 [label="gini = 0.5\nsamples = 2\nvalue = [1, 1]"] ;
265 -> 266 ;
267 [label="gini = 0.0\nsamples = 2\nvalue = [0, 2]"] ;
265 -> 267 ;
268 [label="gini = 0.0\nsamples = 4\nvalue = [0, 4]"] ;
264 -> 268 ;
269 [label="gini = 0.0\nsamples = 2\nvalue = [2, 0]"] ;
263 -> 269 ;
270 [label="X[2] <= 1.5\ngini = 0.142\nsamples = 13\nvalue = [12, 1]"] ;
262 -> 270 ;
271 [label="gini = 0.0\nsamples = 12\nvalue = [12, 0]"] ;
270 -> 271 ;
272 [label="gini = 0.0\nsamples = 1\nvalue = [0, 1]"] ;
270 -> 272 ;
273 [label="X[11] <= 1.5\ngini = 0.47\nsamples = 127\nvalue = [48, 79]"] ;
199 -> 273 ;
274 [label="X[10] <= 2.5\ngini = 0.227\nsamples = 23\nvalue = [3, 20]"] ;
273 -> 274 ;
275 [label="X[12] <= 1.5\ngini = 0.355\nsamples = 13\nvalue = [3, 10]"] ;
274 -> 275 ;
276 [label="gini = 0.0\nsamples = 1\nvalue = [1, 0]"] ;
275 -> 276 ;
277 [label="X[11] <= 0.5\ngini = 0.278\nsamples = 12\nvalue = [2, 10]"] ;
275 -> 277 ;
278 [label="gini = 0.0\nsamples = 8\nvalue = [0, 8]"] ;
277 -> 278 ;
279 [label="X[8] <= 1.0\ngini = 0.5\nsamples = 4\nvalue = [2, 2]"] ;
277 -> 279 ;
280 [label="gini = 0.0\nsamples = 1\nvalue = [0, 1]"] ;
279 -> 280 ;
281 [label="X[2] <= 1.5\ngini = 0.444\nsamples = 3\nvalue = [2, 1]"] ;
279 -> 281 ;
282 [label="gini = 0.0\nsamples = 2\nvalue = [2, 0]"] ;
281 -> 282 ;
283 [label="gini = 0.0\nsamples = 1\nvalue = [0, 1]"] ;
281 -> 283 ;
284 [label="gini = 0.0\nsamples = 10\nvalue = [0, 10]"] ;
274 -> 284 ;
285 [label="X[4] <= 1.5\ngini = 0.491\nsamples = 104\nvalue = [45, 59]"] ;
273 -> 285 ;
286 [label="X[12] <= 0.5\ngini = 0.5\nsamples = 72\nvalue = [37, 35]"] ;
285 -> 286 ;
287 [label="X[4] <= 0.5\ngini = 0.444\nsamples = 18\nvalue = [6, 12]"] ;
286 -> 287 ;
288 [label="X[11] <= 2.5\ngini = 0.49\nsamples = 14\nvalue = [6, 8]"] ;
287 -> 288 ;
289 [label="X[6] <= 1.5\ngini = 0.375\nsamples = 4\nvalue = [3, 1]"] ;
288 -> 289 ;
290 [label="gini = 0.444\nsamples = 3\nvalue = [2, 1]"] ;
289 -> 290 ;
291 [label="gini = 0.0\nsamples = 1\nvalue = [1, 0]"] ;
289 -> 291 ;
292 [label="X[11] <= 3.5\ngini = 0.42\nsamples = 10\nvalue = [3, 7]"] ;
288 -> 292 ;
293 [label="X[9] <= 0.5\ngini = 0.245\nsamples = 7\nvalue = [1, 6]"] ;
292 -> 293 ;
294 [label="gini = 0.0\nsamples = 1\nvalue = [0, 1]"] ;
293 -> 294 ;
295 [label="gini = 0.278\nsamples = 6\nvalue = [1, 5]"] ;
293 -> 295 ;
296 [label="X[11] <= 4.5\ngini = 0.444\nsamples = 3\nvalue = [2, 1]"] ;
292 -> 296 ;
297 [label="gini = 0.5\nsamples = 2\nvalue = [1, 1]"] ;
296 -> 297 ;
298 [label="gini = 0.0\nsamples = 1\nvalue = [1, 0]"] ;
296 -> 298 ;
299 [label="gini = 0.0\nsamples = 4\nvalue = [0, 4]"] ;
287 -> 299 ;
300 [label="X[10] <= 1.5\ngini = 0.489\nsamples = 54\nvalue = [31, 23]"] ;
286 -> 300 ;
301 [label="X[11] <= 3.5\ngini = 0.491\nsamples = 30\nvalue = [13, 17]"] ;
300 -> 301 ;
302 [label="X[2] <= 0.5\ngini = 0.278\nsamples = 6\nvalue = [1, 5]"] ;
301 -> 302 ;
303 [label="gini = 0.0\nsamples = 3\nvalue = [0, 3]"] ;
302 -> 303 ;
304 [label="X[11] <= 2.5\ngini = 0.444\nsamples = 3\nvalue = [1, 2]"] ;
302 -> 304 ;
305 [label="X[4] <= 0.5\ngini = 0.5\nsamples = 2\nvalue = [1, 1]"] ;
304 -> 305 ;
306 [label="gini = 0.0\nsamples = 1\nvalue = [1, 0]"] ;
305 -> 306 ;
307 [label="gini = 0.0\nsamples = 1\nvalue = [0, 1]"] ;
305 -> 307 ;
308 [label="gini = 0.0\nsamples = 1\nvalue = [0, 1]"] ;
304 -> 308 ;
309 [label="X[11] <= 5.5\ngini = 0.5\nsamples = 24\nvalue = [12, 12]"] ;
301 -> 309 ;
310 [label="X[11] <= 4.5\ngini = 0.499\nsamples = 23\nvalue = [12, 11]"] ;
309 -> 310 ;
311 [label="X[5] <= 0.5\ngini = 0.494\nsamples = 18\nvalue = [8, 10]"] ;
310 -> 311 ;
312 [label="gini = 0.0\nsamples = 1\nvalue = [1, 0]"] ;
311 -> 312 ;
313 [label="X[2] <= 0.5\ngini = 0.484\nsamples = 17\nvalue = [7, 10]"] ;
311 -> 313 ;
314 [label="X[6] <= 1.5\ngini = 0.408\nsamples = 7\nvalue = [2, 5]"] ;
313 -> 314 ;
315 [label="gini = 0.0\nsamples = 4\nvalue = [0, 4]"] ;
314 -> 315 ;
316 [label="X[12] <= 2.5\ngini = 0.444\nsamples = 3\nvalue = [2, 1]"] ;
314 -> 316 ;
317 [label="gini = 0.0\nsamples = 2\nvalue = [2, 0]"] ;
316 -> 317 ;
318 [label="gini = 0.0\nsamples = 1\nvalue = [0, 1]"] ;
316 -> 318 ;
319 [label="X[4] <= 0.5\ngini = 0.5\nsamples = 10\nvalue = [5, 5]"] ;
313 -> 319 ;
320 [label="X[6] <= 1.5\ngini = 0.494\nsamples = 9\nvalue = [4, 5]"] ;
319 -> 320 ;
321 [label="X[8] <= 1.5\ngini = 0.49\nsamples = 7\nvalue = [4, 3]"] ;
320 -> 321 ;
322 [label="gini = 0.0\nsamples = 2\nvalue = [2, 0]"] ;
321 -> 322 ;
323 [label="X[12] <= 2.5\ngini = 0.48\nsamples = 5\nvalue = [2, 3]"] ;
321 -> 323 ;
324 [label="X[8] <= 2.5\ngini = 0.375\nsamples = 4\nvalue = [1, 3]"] ;
323 -> 324 ;
325 [label="gini = 0.444\nsamples = 3\nvalue = [1, 2]"] ;
324 -> 325 ;
326 [label="gini = 0.0\nsamples = 1\nvalue = [0, 1]"] ;
324 -> 326 ;
327 [label="gini = 0.0\nsamples = 1\nvalue = [1, 0]"] ;
323 -> 327 ;
328 [label="gini = 0.0\nsamples = 2\nvalue = [0, 2]"] ;
320 -> 328 ;
329 [label="gini = 0.0\nsamples = 1\nvalue = [1, 0]"] ;
319 -> 329 ;
330 [label="X[2] <= 0.5\ngini = 0.32\nsamples = 5\nvalue = [4, 1]"] ;
310 -> 330 ;
331 [label="gini = 0.0\nsamples = 2\nvalue = [2, 0]"] ;
330 -> 331 ;
332 [label="X[12] <= 1.5\ngini = 0.444\nsamples = 3\nvalue = [2, 1]"] ;
330 -> 332 ;
333 [label="gini = 0.0\nsamples = 1\nvalue = [1, 0]"] ;
332 -> 333 ;
334 [label="gini = 0.5\nsamples = 2\nvalue = [1, 1]"] ;
332 -> 334 ;
335 [label="gini = 0.0\nsamples = 1\nvalue = [0, 1]"] ;
309 -> 335 ;
336 [label="X[5] <= 1.5\ngini = 0.375\nsamples = 24\nvalue = [18, 6]"] ;
300 -> 336 ;
337 [label="gini = 0.0\nsamples = 1\nvalue = [0, 1]"] ;
336 -> 337 ;
338 [label="X[11] <= 3.5\ngini = 0.34\nsamples = 23\nvalue = [18, 5]"] ;
336 -> 338 ;
339 [label="X[11] <= 2.5\ngini = 0.208\nsamples = 17\nvalue = [15, 2]"] ;
338 -> 339 ;
340 [label="X[6] <= 1.5\ngini = 0.346\nsamples = 9\nvalue = [7, 2]"] ;
339 -> 340 ;
341 [label="X[12] <= 1.5\ngini = 0.444\nsamples = 6\nvalue = [4, 2]"] ;
340 -> 341 ;
342 [label="gini = 0.0\nsamples = 1\nvalue = [0, 1]"] ;
341 -> 342 ;
343 [label="X[2] <= 0.5\ngini = 0.32\nsamples = 5\nvalue = [4, 1]"] ;
341 -> 343 ;
344 [label="gini = 0.0\nsamples = 2\nvalue = [2, 0]"] ;
343 -> 344 ;
345 [label="X[8] <= 1.5\ngini = 0.444\nsamples = 3\nvalue = [2, 1]"] ;
343 -> 345 ;
346 [label="gini = 0.5\nsamples = 2\nvalue = [1, 1]"] ;
345 -> 346 ;
347 [label="gini = 0.0\nsamples = 1\nvalue = [1, 0]"] ;
345 -> 347 ;
348 [label="gini = 0.0\nsamples = 3\nvalue = [3, 0]"] ;
340 -> 348 ;
349 [label="gini = 0.0\nsamples = 8\nvalue = [8, 0]"] ;
339 -> 349 ;
350 [label="X[11] <= 4.5\ngini = 0.5\nsamples = 6\nvalue = [3, 3]"] ;
338 -> 350 ;
351 [label="X[12] <= 1.5\ngini = 0.48\nsamples = 5\nvalue = [2, 3]"] ;
350 -> 351 ;
352 [label="gini = 0.5\nsamples = 4\nvalue = [2, 2]"] ;
351 -> 352 ;
353 [label="gini = 0.0\nsamples = 1\nvalue = [0, 1]"] ;
351 -> 353 ;
354 [label="gini = 0.0\nsamples = 1\nvalue = [1, 0]"] ;
350 -> 354 ;
355 [label="X[7] <= 1.5\ngini = 0.375\nsamples = 32\nvalue = [8, 24]"] ;
285 -> 355 ;
356 [label="X[6] <= 1.5\ngini = 0.32\nsamples = 30\nvalue = [6, 24]"] ;
355 -> 356 ;
357 [label="X[11] <= 3.5\ngini = 0.469\nsamples = 8\nvalue = [3, 5]"] ;
356 -> 357 ;
358 [label="X[12] <= 0.5\ngini = 0.408\nsamples = 7\nvalue = [2, 5]"] ;
357 -> 358 ;
359 [label="X[11] <= 2.5\ngini = 0.48\nsamples = 5\nvalue = [2, 3]"] ;
358 -> 359 ;
360 [label="gini = 0.444\nsamples = 3\nvalue = [1, 2]"] ;
359 -> 360 ;
361 [label="gini = 0.5\nsamples = 2\nvalue = [1, 1]"] ;
359 -> 361 ;
362 [label="gini = 0.0\nsamples = 2\nvalue = [0, 2]"] ;
358 -> 362 ;
363 [label="gini = 0.0\nsamples = 1\nvalue = [1, 0]"] ;
357 -> 363 ;
364 [label="X[2] <= 0.5\ngini = 0.236\nsamples = 22\nvalue = [3, 19]"] ;
356 -> 364 ;
365 [label="X[12] <= 0.5\ngini = 0.291\nsamples = 17\nvalue = [3, 14]"] ;
364 -> 365 ;
366 [label="gini = 0.26\nsamples = 13\nvalue = [2, 11]"] ;
365 -> 366 ;
367 [label="gini = 0.375\nsamples = 4\nvalue = [1, 3]"] ;
365 -> 367 ;
368 [label="gini = 0.0\nsamples = 5\nvalue = [0, 5]"] ;
364 -> 368 ;
369 [label="gini = 0.0\nsamples = 2\nvalue = [2, 0]"] ;
355 -> 369 ;
370 [label="X[0] <= 2.5\ngini = 0.315\nsamples = 51\nvalue = [41, 10]"] ;
198 -> 370 ;
371 [label="gini = 0.0\nsamples = 6\nvalue = [0, 6]"] ;
370 -> 371 ;
372 [label="X[12] <= 1.5\ngini = 0.162\nsamples = 45\nvalue = [41, 4]"] ;
370 -> 372 ;
373 [label="gini = 0.0\nsamples = 1\nvalue = [0, 1]"] ;
372 -> 373 ;
374 [label="X[8] <= 5.5\ngini = 0.127\nsamples = 44\nvalue = [41, 3]"] ;
372 -> 374 ;
375 [label="gini = 0.0\nsamples = 25\nvalue = [25, 0]"] ;
374 -> 375 ;
376 [label="X[12] <= 3.5\ngini = 0.266\nsamples = 19\nvalue = [16, 3]"] ;
374 -> 376 ;
377 [label="X[11] <= 3.0\ngini = 0.42\nsamples = 10\nvalue = [7, 3]"] ;
376 -> 377 ;
378 [label="X[1] <= 0.5\ngini = 0.375\nsamples = 8\nvalue = [6, 2]"] ;
377 -> 378 ;
379 [label="X[11] <= 0.5\ngini = 0.444\nsamples = 3\nvalue = [2, 1]"] ;
378 -> 379 ;
380 [label="gini = 0.5\nsamples = 2\nvalue = [1, 1]"] ;
379 -> 380 ;
381 [label="gini = 0.0\nsamples = 1\nvalue = [1, 0]"] ;
379 -> 381 ;
382 [label="X[11] <= 0.5\ngini = 0.32\nsamples = 5\nvalue = [4, 1]"] ;
378 -> 382 ;
383 [label="gini = 0.0\nsamples = 1\nvalue = [1, 0]"] ;
382 -> 383 ;
384 [label="gini = 0.375\nsamples = 4\nvalue = [3, 1]"] ;
382 -> 384 ;
385 [label="gini = 0.5\nsamples = 2\nvalue = [1, 1]"] ;
377 -> 385 ;
386 [label="gini = 0.0\nsamples = 9\nvalue = [9, 0]"] ;
376 -> 386 ;
}